<?xml version="1.0"?>
<opencv_storage>
<stage2>
  <maxWeakCount>5</maxWeakCount>
  <stageThreshold>-1.6592442989349365e+00</stageThreshold>
  <weakClassifiers>
    <_>
      <internalNodes>
        0 -1 29868 -3.3969432115554810e-02</internalNodes>
      <leafValues>
        1.9685038924217224e-01 -8.0829018354415894e-01</leafValues></_>
    <_>
      <internalNodes>
        0 -1 103057 -2.3258617147803307e-03</internalNodes>
      <leafValues>
        6.4965581893920898e-01 -5.3450500965118408e-01</leafValues></_>
    <_>
      <internalNodes>
        0 -1 147229 1.2287718709558249e-04</internalNodes>
      <leafValues>
        -5.1750856637954712e-01 7.0288193225860596e-01</leafValues></_>
    <_>
      <internalNodes>
        0 -1 25466 1.2298882938921452e-04</internalNodes>
      <leafValues>
        -5.8155572414398193e-01 4.9226158857345581e-01</leafValues></_>
    <_>
      <internalNodes>
        0 -1 140703 2.2677051310893148e-04</internalNodes>
      <leafValues>
        -4.0154567360877991e-01 7.3508793115615845e-01</leafValues></_></weakClassifiers></stage2>
</opencv_storage>
