<?xml version="1.0"?>
<opencv_storage>
<stage7>
  <maxWeakCount>6</maxWeakCount>
  <stageThreshold>-1.2568385601043701e+00</stageThreshold>
  <weakClassifiers>
    <_>
      <internalNodes>
        0 -1 131577 -3.0462531372904778e-02</internalNodes>
      <leafValues>
        7.1428573131561279e-01 -6.5271967649459839e-01</leafValues></_>
    <_>
      <internalNodes>
        0 -1 33353 1.0214892972726375e-04</internalNodes>
      <leafValues>
        -5.7921904325485229e-01 2.9748916625976563e-01</leafValues></_>
    <_>
      <internalNodes>
        0 -1 103700 -1.0766921564936638e-02</internalNodes>
      <leafValues>
        5.5710113048553467e-01 -3.0094355344772339e-01</leafValues></_>
    <_>
      <internalNodes>
        0 -1 128009 -4.8785273975227028e-05</internalNodes>
      <leafValues>
        3.7882608175277710e-01 -5.1490634679794312e-01</leafValues></_>
    <_>
      <internalNodes>
        0 -1 2914 -1.2930621206760406e-01</internalNodes>
      <leafValues>
        -8.3021098375320435e-01 2.4538147449493408e-01</leafValues></_>
    <_>
      <internalNodes>
        0 -1 91898 1.1680602328851819e-03</internalNodes>
      <leafValues>
        -3.1247612833976746e-01 6.4334833621978760e-01</leafValues></_></weakClassifiers></stage7>
</opencv_storage>
