<?xml version="1.0"?>
<opencv_storage>
<stage14>
  <maxWeakCount>7</maxWeakCount>
  <stageThreshold>-1.5915461778640747e+00</stageThreshold>
  <weakClassifiers>
    <_>
      <internalNodes>
        0 -1 162335 9.8992983112111688e-05</internalNodes>
      <leafValues>
        -7.4226802587509155e-01 8.0000003799796104e-03</leafValues></_>
    <_>
      <internalNodes>
        0 -1 11052 -3.5019306233152747e-04</internalNodes>
      <leafValues>
        2.6736432313919067e-01 -5.9602534770965576e-01</leafValues></_>
    <_>
      <internalNodes>
        0 -1 872 4.1252218186855316e-02</internalNodes>
      <leafValues>
        -5.6257385015487671e-01 3.0404260754585266e-01</leafValues></_>
    <_>
      <internalNodes>
        0 -1 16465 5.6980744004249573e-02</internalNodes>
      <leafValues>
        2.0569926500320435e-01 -1.</leafValues></_>
    <_>
      <internalNodes>
        0 -1 82885 -7.7667110599577427e-04</internalNodes>
      <leafValues>
        6.9024276733398438e-01 -3.2020711898803711e-01</leafValues></_>
    <_>
      <internalNodes>
        0 -1 37727 3.8448069244623184e-03</internalNodes>
      <leafValues>
        -2.3525284230709076e-01 6.8762910366058350e-01</leafValues></_>
    <_>
      <internalNodes>
        0 -1 123443 -5.0972886383533478e-03</internalNodes>
      <leafValues>
        7.6366150379180908e-01 -2.0753473043441772e-01</leafValues></_></weakClassifiers></stage14>
</opencv_storage>
