<?xml version="1.0"?>
<opencv_storage>
<stage12>
  <maxWeakCount>6</maxWeakCount>
  <stageThreshold>-7.8040158748626709e-01</stageThreshold>
  <weakClassifiers>
    <_>
      <internalNodes>
        0 -1 59393 -9.7550661303102970e-04</internalNodes>
      <leafValues>
        2.0987653732299805e-01 -7.0370370149612427e-01</leafValues></_>
    <_>
      <internalNodes>
        0 -1 93530 -5.0833195447921753e-02</internalNodes>
      <leafValues>
        5.4265701770782471e-01 -3.8270309567451477e-01</leafValues></_>
    <_>
      <internalNodes>
        0 -1 11895 -6.3813822343945503e-03</internalNodes>
      <leafValues>
        -1. 2.0509628951549530e-01</leafValues></_>
    <_>
      <internalNodes>
        0 -1 118636 1.7472433391958475e-03</internalNodes>
      <leafValues>
        -3.2200276851654053e-01 6.6488695144653320e-01</leafValues></_>
    <_>
      <internalNodes>
        0 -1 141910 -1.2335795909166336e-02</internalNodes>
      <leafValues>
        6.8553507328033447e-01 -2.9721280932426453e-01</leafValues></_>
    <_>
      <internalNodes>
        0 -1 113109 -1.4848322607576847e-03</internalNodes>
      <leafValues>
        7.8201842308044434e-01 -2.0523563027381897e-01</leafValues></_></weakClassifiers></stage12>
</opencv_storage>
