<?xml version="1.0"?>
<opencv_storage>
<stage5>
  <maxWeakCount>5</maxWeakCount>
  <stageThreshold>-1.4088684320449829e+00</stageThreshold>
  <weakClassifiers>
    <_>
      <internalNodes>
        0 -1 101964 -9.1004475951194763e-02</internalNodes>
      <leafValues>
        5.7692307233810425e-01 -6.8763560056686401e-01</leafValues></_>
    <_>
      <internalNodes>
        0 -1 3570 -3.3104449510574341e-02</internalNodes>
      <leafValues>
        3.5627460479736328e-01 -6.2898266315460205e-01</leafValues></_>
    <_>
      <internalNodes>
        0 -1 135042 1.0441574268043041e-03</internalNodes>
      <leafValues>
        -3.2705968618392944e-01 7.5273418426513672e-01</leafValues></_>
    <_>
      <internalNodes>
        0 -1 25610 4.6796340029686689e-05</internalNodes>
      <leafValues>
        -4.3266984820365906e-01 5.0928801298141479e-01</leafValues></_>
    <_>
      <internalNodes>
        0 -1 116997 2.7123431209474802e-04</internalNodes>
      <leafValues>
        -3.1777790188789368e-01 6.6033047437667847e-01</leafValues></_></weakClassifiers></stage5>
</opencv_storage>
